digraph Tree {
node [shape=box, style="filled, rounded", color="black", fontname=helvetica] ;
edge [fontname=helvetica] ;
0 [label="NOTA_GERAL <= 0.5\ngini = 0.5\nsamples = 458\nvalue = [236, 222]\nclass = False", fillcolor="#fdf8f3"] ;
1 [label="QUARTOS <= 0.5\ngini = 0.487\nsamples = 350\nvalue = [203, 147]\nclass = False", fillcolor="#f8dcc8"] ;
0 -> 1 [labeldistance=2.5, labelangle=45, headlabel="True"] ;
2 [label="ANO_CONST <= 0.5\ngini = 0.466\nsamples = 168\nvalue = [62, 106]\nclass = True", fillcolor="#add6f4"] ;
1 -> 2 ;
3 [label="AREA_PORAO <= 0.5\ngini = 0.418\nsamples = 141\nvalue = [42, 99]\nclass = True", fillcolor="#8dc7f0"] ;
2 -> 3 ;
4 [label="AREA_CONVIV <= 0.5\ngini = 0.373\nsamples = 113\nvalue = [28, 85]\nclass = True", fillcolor="#7abdee"] ;
3 -> 4 ;
5 [label="NOTA_CONSERV <= 0.5\ngini = 0.361\nsamples = 110\nvalue = [26, 84]\nclass = True", fillcolor="#76bbed"] ;
4 -> 5 ;
6 [label="ANO_REFOR <= 0.5\ngini = 0.283\nsamples = 41\nvalue = [7, 34]\nclass = True", fillcolor="#62b1ea"] ;
5 -> 6 ;
7 [label="ANDARES <= 0.5\ngini = 0.255\nsamples = 40\nvalue = [6, 34]\nclass = True", fillcolor="#5caeea"] ;
6 -> 7 ;
8 [label="AREA_LOTE <= 0.5\ngini = 0.159\nsamples = 23\nvalue = [2, 21]\nclass = True", fillcolor="#4ca6e7"] ;
7 -> 8 ;
9 [label="BANHEIROS <= 0.5\ngini = 0.219\nsamples = 16\nvalue = [2, 14]\nclass = True", fillcolor="#55abe9"] ;
8 -> 9 ;
10 [label="gini = 0.219\nsamples = 8\nvalue = [1, 7]\nclass = True", fillcolor="#55abe9"] ;
9 -> 10 ;
11 [label="gini = 0.219\nsamples = 8\nvalue = [1, 7]\nclass = True", fillcolor="#55abe9"] ;
9 -> 11 ;
12 [label="gini = 0.0\nsamples = 7\nvalue = [0, 7]\nclass = True", fillcolor="#399de5"] ;
8 -> 12 ;
13 [label="AREA_LOTE <= 0.5\ngini = 0.36\nsamples = 17\nvalue = [4, 13]\nclass = True", fillcolor="#76bbed"] ;
7 -> 13 ;
14 [label="gini = 0.153\nsamples = 12\nvalue = [1, 11]\nclass = True", fillcolor="#4ba6e7"] ;
13 -> 14 ;
15 [label="VISTA <= 0.5\ngini = 0.48\nsamples = 5\nvalue = [3, 2]\nclass = False", fillcolor="#f6d5bd"] ;
13 -> 15 ;
16 [label="BANHEIROS <= 0.5\ngini = 0.375\nsamples = 4\nvalue = [3, 1]\nclass = False", fillcolor="#eeab7b"] ;
15 -> 16 ;
17 [label="gini = 0.0\nsamples = 1\nvalue = [1, 0]\nclass = False", fillcolor="#e58139"] ;
16 -> 17 ;
18 [label="gini = 0.444\nsamples = 3\nvalue = [2, 1]\nclass = False", fillcolor="#f2c09c"] ;
16 -> 18 ;
19 [label="gini = 0.0\nsamples = 1\nvalue = [0, 1]\nclass = True", fillcolor="#399de5"] ;
15 -> 19 ;
20 [label="gini = 0.0\nsamples = 1\nvalue = [1, 0]\nclass = False", fillcolor="#e58139"] ;
6 -> 20 ;
21 [label="ANO_REFOR <= 0.5\ngini = 0.399\nsamples = 69\nvalue = [19, 50]\nclass = True", fillcolor="#84c2ef"] ;
5 -> 21 ;
22 [label="BANHEIROS <= 0.5\ngini = 0.406\nsamples = 67\nvalue = [19, 48]\nclass = True", fillcolor="#87c4ef"] ;
21 -> 22 ;
23 [label="ANDARES <= 0.5\ngini = 0.404\nsamples = 32\nvalue = [9, 23]\nclass = True", fillcolor="#86c3ef"] ;
22 -> 23 ;
24 [label="AREA_LOTE <= 0.5\ngini = 0.383\nsamples = 31\nvalue = [8, 23]\nclass = True", fillcolor="#7ebfee"] ;
23 -> 24 ;
25 [label="gini = 0.375\nsamples = 20\nvalue = [5, 15]\nclass = True", fillcolor="#7bbeee"] ;
24 -> 25 ;
26 [label="gini = 0.397\nsamples = 11\nvalue = [3, 8]\nclass = True", fillcolor="#83c2ef"] ;
24 -> 26 ;
27 [label="gini = 0.0\nsamples = 1\nvalue = [1, 0]\nclass = False", fillcolor="#e58139"] ;
23 -> 27 ;
28 [label="ANDARES <= 0.5\ngini = 0.408\nsamples = 35\nvalue = [10, 25]\nclass = True", fillcolor="#88c4ef"] ;
22 -> 28 ;
29 [label="AREA_LOTE <= 0.5\ngini = 0.428\nsamples = 29\nvalue = [9, 20]\nclass = True", fillcolor="#92c9f1"] ;
28 -> 29 ;
30 [label="gini = 0.397\nsamples = 22\nvalue = [6, 16]\nclass = True", fillcolor="#83c2ef"] ;
29 -> 30 ;
31 [label="gini = 0.49\nsamples = 7\nvalue = [3, 4]\nclass = True", fillcolor="#cee6f8"] ;
29 -> 31 ;
32 [label="AREA_LOTE <= 0.5\ngini = 0.278\nsamples = 6\nvalue = [1, 5]\nclass = True", fillcolor="#61b1ea"] ;
28 -> 32 ;
33 [label="gini = 0.444\nsamples = 3\nvalue = [1, 2]\nclass = True", fillcolor="#9ccef2"] ;
32 -> 33 ;
34 [label="gini = 0.0\nsamples = 3\nvalue = [0, 3]\nclass = True", fillcolor="#399de5"] ;
32 -> 34 ;
35 [label="gini = 0.0\nsamples = 2\nvalue = [0, 2]\nclass = True", fillcolor="#399de5"] ;
21 -> 35 ;
36 [label="NOTA_CONSERV <= 0.5\ngini = 0.444\nsamples = 3\nvalue = [2, 1]\nclass = False", fillcolor="#f2c09c"] ;
4 -> 36 ;
37 [label="gini = 0.0\nsamples = 2\nvalue = [2, 0]\nclass = False", fillcolor="#e58139"] ;
36 -> 37 ;
38 [label="gini = 0.0\nsamples = 1\nvalue = [0, 1]\nclass = True", fillcolor="#399de5"] ;
36 -> 38 ;
39 [label="ANDARES <= 0.5\ngini = 0.5\nsamples = 28\nvalue = [14, 14]\nclass = False", fillcolor="#ffffff"] ;
3 -> 39 ;
40 [label="AREA_CONVIV <= 0.5\ngini = 0.499\nsamples = 27\nvalue = [13, 14]\nclass = True", fillcolor="#f1f8fd"] ;
39 -> 40 ;
41 [label="ANO_REFOR <= 0.5\ngini = 0.497\nsamples = 26\nvalue = [12, 14]\nclass = True", fillcolor="#e3f1fb"] ;
40 -> 41 ;
42 [label="AREA_LOTE <= 0.5\ngini = 0.493\nsamples = 25\nvalue = [11, 14]\nclass = True", fillcolor="#d5eaf9"] ;
41 -> 42 ;
43 [label="NOTA_CONSERV <= 0.5\ngini = 0.5\nsamples = 18\nvalue = [9, 9]\nclass = False", fillcolor="#ffffff"] ;
42 -> 43 ;
44 [label="gini = 0.32\nsamples = 5\nvalue = [1, 4]\nclass = True", fillcolor="#6ab6ec"] ;
43 -> 44 ;
45 [label="BANHEIROS <= 0.5\ngini = 0.473\nsamples = 13\nvalue = [8, 5]\nclass = False", fillcolor="#f5d0b5"] ;
43 -> 45 ;
46 [label="gini = 0.444\nsamples = 3\nvalue = [2, 1]\nclass = False", fillcolor="#f2c09c"] ;
45 -> 46 ;
47 [label="gini = 0.48\nsamples = 10\nvalue = [6, 4]\nclass = False", fillcolor="#f6d5bd"] ;
45 -> 47 ;
48 [label="BANHEIROS <= 0.5\ngini = 0.408\nsamples = 7\nvalue = [2, 5]\nclass = True", fillcolor="#88c4ef"] ;
42 -> 48 ;
49 [label="NOTA_CONSERV <= 0.5\ngini = 0.5\nsamples = 2\nvalue = [1, 1]\nclass = False", fillcolor="#ffffff"] ;
48 -> 49 ;
50 [label="gini = 0.0\nsamples = 1\nvalue = [1, 0]\nclass = False", fillcolor="#e58139"] ;
49 -> 50 ;
51 [label="gini = 0.0\nsamples = 1\nvalue = [0, 1]\nclass = True", fillcolor="#399de5"] ;
49 -> 51 ;
52 [label="NOTA_CONSERV <= 0.5\ngini = 0.32\nsamples = 5\nvalue = [1, 4]\nclass = True", fillcolor="#6ab6ec"] ;
48 -> 52 ;
53 [label="gini = 0.0\nsamples = 1\nvalue = [0, 1]\nclass = True", fillcolor="#399de5"] ;
52 -> 53 ;
54 [label="gini = 0.375\nsamples = 4\nvalue = [1, 3]\nclass = True", fillcolor="#7bbeee"] ;
52 -> 54 ;
55 [label="gini = 0.0\nsamples = 1\nvalue = [1, 0]\nclass = False", fillcolor="#e58139"] ;
41 -> 55 ;
56 [label="gini = 0.0\nsamples = 1\nvalue = [1, 0]\nclass = False", fillcolor="#e58139"] ;
40 -> 56 ;
57 [label="gini = 0.0\nsamples = 1\nvalue = [1, 0]\nclass = False", fillcolor="#e58139"] ;
39 -> 57 ;
58 [label="ANDARES <= 0.5\ngini = 0.384\nsamples = 27\nvalue = [20, 7]\nclass = False", fillcolor="#eead7e"] ;
2 -> 58 ;
59 [label="gini = 0.0\nsamples = 2\nvalue = [0, 2]\nclass = True", fillcolor="#399de5"] ;
58 -> 59 ;
60 [label="AREA_CONVIV <= 0.5\ngini = 0.32\nsamples = 25\nvalue = [20, 5]\nclass = False", fillcolor="#eca06a"] ;
58 -> 60 ;
61 [label="AREA_PORAO <= 0.5\ngini = 0.415\nsamples = 17\nvalue = [12, 5]\nclass = False", fillcolor="#f0b58b"] ;
60 -> 61 ;
62 [label="gini = 0.43\nsamples = 16\nvalue = [11, 5]\nclass = False", fillcolor="#f1ba93"] ;
61 -> 62 ;
63 [label="gini = 0.0\nsamples = 1\nvalue = [1, 0]\nclass = False", fillcolor="#e58139"] ;
61 -> 63 ;
64 [label="gini = 0.0\nsamples = 8\nvalue = [8, 0]\nclass = False", fillcolor="#e58139"] ;
60 -> 64 ;
65 [label="AREA_CONVIV <= 0.5\ngini = 0.349\nsamples = 182\nvalue = [141, 41]\nclass = False", fillcolor="#eda673"] ;
1 -> 65 ;
66 [label="AREA_LOTE <= 0.5\ngini = 0.42\nsamples = 110\nvalue = [77, 33]\nclass = False", fillcolor="#f0b78e"] ;
65 -> 66 ;
67 [label="NOTA_CONSERV <= 0.5\ngini = 0.391\nsamples = 90\nvalue = [66, 24]\nclass = False", fillcolor="#eeaf81"] ;
66 -> 67 ;
68 [label="ANO_REFOR <= 0.5\ngini = 0.423\nsamples = 56\nvalue = [39, 17]\nclass = False", fillcolor="#f0b88f"] ;
67 -> 68 ;
69 [label="ANO_CONST <= 0.5\ngini = 0.413\nsamples = 55\nvalue = [39, 16]\nclass = False", fillcolor="#f0b58a"] ;
68 -> 69 ;
70 [label="AREA_PORAO <= 0.5\ngini = 0.473\nsamples = 13\nvalue = [8, 5]\nclass = False", fillcolor="#f5d0b5"] ;
69 -> 70 ;
71 [label="ANDARES <= 0.5\ngini = 0.5\nsamples = 10\nvalue = [5, 5]\nclass = False", fillcolor="#ffffff"] ;
70 -> 71 ;
72 [label="gini = 0.0\nsamples = 1\nvalue = [0, 1]\nclass = True", fillcolor="#399de5"] ;
71 -> 72 ;
73 [label="gini = 0.494\nsamples = 9\nvalue = [5, 4]\nclass = False", fillcolor="#fae6d7"] ;
71 -> 73 ;
74 [label="gini = 0.0\nsamples = 3\nvalue = [3, 0]\nclass = False", fillcolor="#e58139"] ;
70 -> 74 ;
75 [label="AREA_PORAO <= 0.5\ngini = 0.387\nsamples = 42\nvalue = [31, 11]\nclass = False", fillcolor="#eeae7f"] ;
69 -> 75 ;
76 [label="gini = 0.369\nsamples = 41\nvalue = [31, 10]\nclass = False", fillcolor="#edaa79"] ;
75 -> 76 ;
77 [label="gini = 0.0\nsamples = 1\nvalue = [0, 1]\nclass = True", fillcolor="#399de5"] ;
75 -> 77 ;
78 [label="gini = 0.0\nsamples = 1\nvalue = [0, 1]\nclass = True", fillcolor="#399de5"] ;
68 -> 78 ;
79 [label="ANDARES <= 0.5\ngini = 0.327\nsamples = 34\nvalue = [27, 7]\nclass = False", fillcolor="#eca26c"] ;
67 -> 79 ;
80 [label="AREA_PORAO <= 0.5\ngini = 0.252\nsamples = 27\nvalue = [23, 4]\nclass = False", fillcolor="#ea975b"] ;
79 -> 80 ;
81 [label="BANHEIROS <= 0.5\ngini = 0.32\nsamples = 15\nvalue = [12, 3]\nclass = False", fillcolor="#eca06a"] ;
80 -> 81 ;
82 [label="gini = 0.278\nsamples = 6\nvalue = [5, 1]\nclass = False", fillcolor="#ea9a61"] ;
81 -> 82 ;
83 [label="gini = 0.346\nsamples = 9\nvalue = [7, 2]\nclass = False", fillcolor="#eca572"] ;
81 -> 83 ;
84 [label="gini = 0.153\nsamples = 12\nvalue = [11, 1]\nclass = False", fillcolor="#e78c4b"] ;
80 -> 84 ;
85 [label="ANO_REFOR <= 0.5\ngini = 0.49\nsamples = 7\nvalue = [4, 3]\nclass = False", fillcolor="#f8e0ce"] ;
79 -> 85 ;
86 [label="gini = 0.5\nsamples = 6\nvalue = [3, 3]\nclass = False", fillcolor="#ffffff"] ;
85 -> 86 ;
87 [label="gini = 0.0\nsamples = 1\nvalue = [1, 0]\nclass = False", fillcolor="#e58139"] ;
85 -> 87 ;
88 [label="NOTA_CONSERV <= 0.5\ngini = 0.495\nsamples = 20\nvalue = [11, 9]\nclass = False", fillcolor="#fae8db"] ;
66 -> 88 ;
89 [label="AREA_PORAO <= 0.5\ngini = 0.278\nsamples = 6\nvalue = [1, 5]\nclass = True", fillcolor="#61b1ea"] ;
88 -> 89 ;
90 [label="gini = 0.0\nsamples = 3\nvalue = [0, 3]\nclass = True", fillcolor="#399de5"] ;
89 -> 90 ;
91 [label="gini = 0.444\nsamples = 3\nvalue = [1, 2]\nclass = True", fillcolor="#9ccef2"] ;
89 -> 91 ;
92 [label="BANHEIROS <= 0.5\ngini = 0.408\nsamples = 14\nvalue = [10, 4]\nclass = False", fillcolor="#efb388"] ;
88 -> 92 ;
93 [label="AREA_PORAO <= 0.5\ngini = 0.5\nsamples = 2\nvalue = [1, 1]\nclass = False", fillcolor="#ffffff"] ;
92 -> 93 ;
94 [label="gini = 0.0\nsamples = 1\nvalue = [1, 0]\nclass = False", fillcolor="#e58139"] ;
93 -> 94 ;
95 [label="gini = 0.0\nsamples = 1\nvalue = [0, 1]\nclass = True", fillcolor="#399de5"] ;
93 -> 95 ;
96 [label="ANDARES <= 0.5\ngini = 0.375\nsamples = 12\nvalue = [9, 3]\nclass = False", fillcolor="#eeab7b"] ;
92 -> 96 ;
97 [label="AREA_PORAO <= 0.5\ngini = 0.346\nsamples = 9\nvalue = [7, 2]\nclass = False", fillcolor="#eca572"] ;
96 -> 97 ;
98 [label="gini = 0.32\nsamples = 5\nvalue = [4, 1]\nclass = False", fillcolor="#eca06a"] ;
97 -> 98 ;
99 [label="gini = 0.375\nsamples = 4\nvalue = [3, 1]\nclass = False", fillcolor="#eeab7b"] ;
97 -> 99 ;
100 [label="gini = 0.444\nsamples = 3\nvalue = [2, 1]\nclass = False", fillcolor="#f2c09c"] ;
96 -> 100 ;
101 [label="ANO_CONST <= 0.5\ngini = 0.198\nsamples = 72\nvalue = [64, 8]\nclass = False", fillcolor="#e89152"] ;
65 -> 101 ;
102 [label="gini = 0.0\nsamples = 20\nvalue = [20, 0]\nclass = False", fillcolor="#e58139"] ;
101 -> 102 ;
103 [label="AREA_PORAO <= 0.5\ngini = 0.26\nsamples = 52\nvalue = [44, 8]\nclass = False", fillcolor="#ea985d"] ;
101 -> 103 ;
104 [label="gini = 0.263\nsamples = 45\nvalue = [38, 7]\nclass = False", fillcolor="#ea985d"] ;
103 -> 104 ;
105 [label="gini = 0.245\nsamples = 7\nvalue = [6, 1]\nclass = False", fillcolor="#e9965a"] ;
103 -> 105 ;
106 [label="QUARTOS <= 0.5\ngini = 0.424\nsamples = 108\nvalue = [33, 75]\nclass = True", fillcolor="#90c8f0"] ;
0 -> 106 [labeldistance=2.5, labelangle=-45, headlabel="False"] ;
107 [label="AREA_CONVIV <= 0.5\ngini = 0.475\nsamples = 18\nvalue = [11, 7]\nclass = False", fillcolor="#f6d1b7"] ;
106 -> 107 ;
108 [label="gini = 0.0\nsamples = 2\nvalue = [0, 2]\nclass = True", fillcolor="#399de5"] ;
107 -> 108 ;
109 [label="ANDARES <= 0.5\ngini = 0.43\nsamples = 16\nvalue = [11, 5]\nclass = False", fillcolor="#f1ba93"] ;
107 -> 109 ;
110 [label="gini = 0.0\nsamples = 1\nvalue = [0, 1]\nclass = True", fillcolor="#399de5"] ;
109 -> 110 ;
111 [label="ANO_CONST <= 0.5\ngini = 0.391\nsamples = 15\nvalue = [11, 4]\nclass = False", fillcolor="#eeaf81"] ;
109 -> 111 ;
112 [label="AREA_PORAO <= 0.5\ngini = 0.469\nsamples = 8\nvalue = [5, 3]\nclass = False", fillcolor="#f5cdb0"] ;
111 -> 112 ;
113 [label="VISTA <= 0.5\ngini = 0.49\nsamples = 7\nvalue = [4, 3]\nclass = False", fillcolor="#f8e0ce"] ;
112 -> 113 ;
114 [label="ANO_REFOR <= 0.5\ngini = 0.444\nsamples = 6\nvalue = [4, 2]\nclass = False", fillcolor="#f2c09c"] ;
113 -> 114 ;
115 [label="AREA_LOTE <= 0.5\ngini = 0.48\nsamples = 5\nvalue = [3, 2]\nclass = False", fillcolor="#f6d5bd"] ;
114 -> 115 ;
116 [label="gini = 0.5\nsamples = 2\nvalue = [1, 1]\nclass = False", fillcolor="#ffffff"] ;
115 -> 116 ;
117 [label="gini = 0.444\nsamples = 3\nvalue = [2, 1]\nclass = False", fillcolor="#f2c09c"] ;
115 -> 117 ;
118 [label="gini = 0.0\nsamples = 1\nvalue = [1, 0]\nclass = False", fillcolor="#e58139"] ;
114 -> 118 ;
119 [label="gini = 0.0\nsamples = 1\nvalue = [0, 1]\nclass = True", fillcolor="#399de5"] ;
113 -> 119 ;
120 [label="gini = 0.0\nsamples = 1\nvalue = [1, 0]\nclass = False", fillcolor="#e58139"] ;
112 -> 120 ;
121 [label="AREA_LOTE <= 0.5\ngini = 0.245\nsamples = 7\nvalue = [6, 1]\nclass = False", fillcolor="#e9965a"] ;
111 -> 121 ;
122 [label="gini = 0.278\nsamples = 6\nvalue = [5, 1]\nclass = False", fillcolor="#ea9a61"] ;
121 -> 122 ;
123 [label="gini = 0.0\nsamples = 1\nvalue = [1, 0]\nclass = False", fillcolor="#e58139"] ;
121 -> 123 ;
124 [label="AREA_LOTE <= 0.5\ngini = 0.369\nsamples = 90\nvalue = [22, 68]\nclass = True", fillcolor="#79bded"] ;
106 -> 124 ;
125 [label="AREA_PORAO <= 0.5\ngini = 0.399\nsamples = 69\nvalue = [19, 50]\nclass = True", fillcolor="#84c2ef"] ;
124 -> 125 ;
126 [label="ANO_CONST <= 0.5\ngini = 0.412\nsamples = 62\nvalue = [18, 44]\nclass = True", fillcolor="#8ac5f0"] ;
125 -> 126 ;
127 [label="NOTA_CONSERV <= 0.5\ngini = 0.375\nsamples = 8\nvalue = [2, 6]\nclass = True", fillcolor="#7bbeee"] ;
126 -> 127 ;
128 [label="gini = 0.32\nsamples = 5\nvalue = [1, 4]\nclass = True", fillcolor="#6ab6ec"] ;
127 -> 128 ;
129 [label="gini = 0.444\nsamples = 3\nvalue = [1, 2]\nclass = True", fillcolor="#9ccef2"] ;
127 -> 129 ;
130 [label="gini = 0.417\nsamples = 54\nvalue = [16, 38]\nclass = True", fillcolor="#8cc6f0"] ;
126 -> 130 ;
131 [label="ANO_CONST <= 0.5\ngini = 0.245\nsamples = 7\nvalue = [1, 6]\nclass = True", fillcolor="#5aade9"] ;
125 -> 131 ;
132 [label="gini = 0.0\nsamples = 1\nvalue = [0, 1]\nclass = True", fillcolor="#399de5"] ;
131 -> 132 ;
133 [label="gini = 0.278\nsamples = 6\nvalue = [1, 5]\nclass = True", fillcolor="#61b1ea"] ;
131 -> 133 ;
134 [label="ANO_CONST <= 0.5\ngini = 0.245\nsamples = 21\nvalue = [3, 18]\nclass = True", fillcolor="#5aade9"] ;
124 -> 134 ;
135 [label="AREA_PORAO <= 0.5\ngini = 0.305\nsamples = 16\nvalue = [3, 13]\nclass = True", fillcolor="#67b4eb"] ;
134 -> 135 ;
136 [label="AREA_CONVIV <= 0.5\ngini = 0.245\nsamples = 14\nvalue = [2, 12]\nclass = True", fillcolor="#5aade9"] ;
135 -> 136 ;
137 [label="gini = 0.0\nsamples = 3\nvalue = [0, 3]\nclass = True", fillcolor="#399de5"] ;
136 -> 137 ;
138 [label="VISTA <= 0.5\ngini = 0.298\nsamples = 11\nvalue = [2, 9]\nclass = True", fillcolor="#65b3eb"] ;
136 -> 138 ;
139 [label="gini = 0.346\nsamples = 9\nvalue = [2, 7]\nclass = True", fillcolor="#72b9ec"] ;
138 -> 139 ;
140 [label="gini = 0.0\nsamples = 2\nvalue = [0, 2]\nclass = True", fillcolor="#399de5"] ;
138 -> 140 ;
141 [label="ANDARES <= 0.5\ngini = 0.5\nsamples = 2\nvalue = [1, 1]\nclass = False", fillcolor="#ffffff"] ;
135 -> 141 ;
142 [label="gini = 0.0\nsamples = 1\nvalue = [0, 1]\nclass = True", fillcolor="#399de5"] ;
141 -> 142 ;
143 [label="gini = 0.0\nsamples = 1\nvalue = [1, 0]\nclass = False", fillcolor="#e58139"] ;
141 -> 143 ;
144 [label="gini = 0.0\nsamples = 5\nvalue = [0, 5]\nclass = True", fillcolor="#399de5"] ;
134 -> 144 ;
}